{"ip":0,"fr":4,"v":"5.1.20","assets":[],"layers":[{"ty":4,"nm":"yoga2","ip":0,"st":0,"ind":1,"hix":1,"ks":{"o":{"a":0,"k":100},"or":{"a":0,"k":[0,0,0]},"a":{"a":0,"k":[275,200,0]},"p":{"s":true,"x":{"a":0,"k":275},"y":{"a":0,"k":200}},"rx":{"a":0,"k":0},"ry":{"a":0,"k":0},"rz":{"a":0,"k":0},"s":{"a":0,"k":[100,100,100]}},"shapes":[{"ty":"gr","nm":"yoga2 shape group","it":[{"ty":"sh","ks":{"a":0,"k":{"c":false,"v":[[276.586,120.915],[278.07300000000004,109.87700000000001],[290.50000000000006,108.61300000000001],[292.37500000000006,130.352],[278.98600000000005,149.498],[269.97600000000006,172.524],[288.97600000000006,170.902],[302.67900000000003,151.31],[311.639,133.96800000000002],[315.541,113.15700000000001],[298.343,101.74000000000001],[291.404,99.45800000000001],[283.748,80.20700000000001],[273.002,99.625],[251.502,117.012],[261.362,134.574],[277.362,154.026],[287.5,198.47500000000002],[288,260.48900000000003],[286.928,272.92800000000005],[286.483,273.15200000000004],[282.754,261.70900000000006],[260.733,251.53700000000006],[245.93200000000002,245.50800000000007],[234.001,232.98900000000006],[252.139,217.61400000000006],[273.71500000000003,203.82900000000006],[297.00100000000003,192.50000000000006],[305.36400000000003,210.88800000000006],[301.40500000000003,237.09500000000006],[297.50100000000003,260.49800000000005],[294.89000000000004,281.47700000000003],[289.41300000000007,297.96700000000004],[286.96400000000006,309.52500000000003],[291.84100000000007,316.343],[307.0160000000001,321.409]],"i":[[0,0],[-2.8430000000000177,2.6029999999999944],[-2.80600000000004,-1.6670000000000016],[3.1779999999999973,-5.503999999999991],[4.350000000000023,-6.521999999999991],[-2.8280000000000314,-7.296000000000021],[-4.3419999999999845,3.858000000000004],[-4.275999999999954,6.817999999999984],[-2.801999999999964,6.800999999999988],[1.2100000000000364,6.478000000000009],[7.408999999999992,2.647999999999996],[6.939000000000021,2.2819999999999965],[3.2110000000000127,3.3370000000000033],[8.113999999999976,-4.762999999999991],[-0.6539999999999964,-11.334000000000003],[-4.211999999999989,-3.9710000000000036],[-4.1510000000000105,-7.324000000000012],[0,-15.688000000000017],[0,-21.01600000000002],[1.3489999999999895,-3.934000000000026],[0.492999999999995,-0.13999999999998636],[2.562000000000012,2.790999999999997],[3.0289999999999964,1.4869999999999948],[7.649000000000001,3.507000000000005],[-1.2769999999999868,8.533000000000015],[-8.186000000000007,5.175000000000011],[-7.156000000000006,4.561000000000007],[-7.329999999999984,0.10000000000002274],[1.0409999999999968,-13.388000000000005],[1.875,-13.239000000000004],[0.46100000000001273,-8.724999999999994],[2.490000000000009,-7.353000000000009],[1.4449999999999932,-5.533999999999992],[-1.0919999999999845,-3.166999999999973],[-1.8600000000000136,-1.6739999999999782],[4.8629999999999995,0]],"o":[[-0.3299999999999841,-3.459000000000003],[2.4289999999999736,-2.219999999999999],[6.982000000000028,4.150999999999996],[-4.0190000000000055,6.955999999999989],[-3.5889999999999986,5.3840000000000146],[3.0600000000000023,7.9010000000000105],[4.762999999999977,-4.231999999999999],[5.34699999999998,-8.526999999999987],[2.8840000000000146,-7.001000000000005],[-1.8319999999999936,-9.804000000000002],[-4.442000000000007,-1.5879999999999939],[-6.425999999999988,-2.1119999999999948],[-3.9209999999999923,7.549999999999997],[-7.7760000000000105,4.563999999999993],[0.3540000000000134,6.1569999999999965],[7.788000000000011,7.342000000000013],[7.59699999999998,13.401999999999987],[0,20.908999999999992],[0,4.276999999999987],[-0.4449999999999932,0.22399999999998954],[-0.1309999999999718,-4.932000000000016],[-0.007999999999981355,-0.007999999999981355],[-6.396999999999991,-2.7150000000000034],[-5.7620000000000005,-2.641999999999996],[0.9619999999999891,-6.437999999999988],[7.084000000000003,-4.477000000000004],[6.2660000000000196,-3.992999999999995],[10.851999999999975,-0.14599999999998658],[-0.6650000000000205,8.554000000000002],[-1.2660000000000196,8.937999999999988],[-0.41800000000000637,7.920999999999992],[-1.8910000000000196,5.588000000000022],[-0.7559999999999718,2.8940000000000055],[0.9139999999999873,2.6499999999999773],[6.214999999999975,5.593000000000018],[0,0]]}}},{"ty":"st","o":{"a":0,"k":100},"c":{"a":0,"k":[0.19215686274509805,0.19215686274509805,0.19607843137254902,1]},"lc":3,"lj":1,"ml":10,"w":{"a":0,"k":1},"d":[{"n":"d","v":{"a":0,"k":800},"nm":"0"},{"n":"g","v":{"a":0,"k":800},"nm":"1"},{"n":"o","v":{"a":1,"k":[{"t":0,"s":[800],"e":[0],"i":{"x":[0.515],"y":[0.955]},"o":{"x":[0.455],"y":[0.03]}},{"t":24}]},"nm":"2"}]},{"ty":"fl","o":{"a":0,"k":0},"c":{"a":0,"k":[0,0,0,0]},"r":1},{"ty":"tr","o":{"a":0,"k":100},"a":{"a":0,"k":[0,0]},"s":{"a":0,"k":[100,100]},"p":{"a":0,"k":[0,0]},"r":{"a":0,"k":0}}]}],"op":24}],"op":28,"w":550,"h":400}